digraph Tree {
node [shape=box] ;
0 [label="X[7] <= 9.5\ngini = 0.232\nsamples = 686\nvalue = [599, 37, 17, 27, 6]"] ;
1 [label="X[1] <= 0.5\ngini = 0.209\nsamples = 656\nvalue = [582, 33, 14, 23, 4]"] ;
0 -> 1 [labeldistance=2.5, labelangle=45, headlabel="True"] ;
2 [label="X[12] <= 0.5\ngini = 0.191\nsamples = 633\nvalue = [568, 29, 13, 20, 3]"] ;
1 -> 2 ;
3 [label="X[0] <= 81.5\ngini = 0.168\nsamples = 572\nvalue = [521, 23, 13, 12, 3]"] ;
2 -> 3 ;
4 [label="X[9] <= 17.0\ngini = 0.165\nsamples = 571\nvalue = [521, 22, 13, 12, 3]"] ;
3 -> 4 ;
5 [label="X[0] <= 18.5\ngini = 0.162\nsamples = 570\nvalue = [521, 21, 13, 12, 3]"] ;
4 -> 5 ;
6 [label="X[29] <= 0.5\ngini = 0.281\nsamples = 100\nvalue = [84, 11, 3, 2, 0]"] ;
5 -> 6 ;
7 [label="X[0] <= 15.5\ngini = 0.241\nsamples = 90\nvalue = [78, 7, 3, 2, 0]"] ;
6 -> 7 ;
8 [label="gini = 0.0\nsamples = 18\nvalue = [18, 0, 0, 0, 0]"] ;
7 -> 8 ;
9 [label="X[0] <= 16.5\ngini = 0.294\nsamples = 72\nvalue = [60, 7, 3, 2, 0]"] ;
7 -> 9 ;
10 [label="X[7] <= 0.125\ngini = 0.48\nsamples = 15\nvalue = [10, 4, 1, 0, 0]"] ;
9 -> 10 ;
11 [label="X[11] <= 1.5\ngini = 0.219\nsamples = 8\nvalue = [7, 1, 0, 0, 0]"] ;
10 -> 11 ;
12 [label="gini = 0.0\nsamples = 5\nvalue = [5, 0, 0, 0, 0]"] ;
11 -> 12 ;
13 [label="X[5] <= 14.5\ngini = 0.444\nsamples = 3\nvalue = [2, 1, 0, 0, 0]"] ;
11 -> 13 ;
14 [label="gini = 0.0\nsamples = 1\nvalue = [1, 0, 0, 0, 0]"] ;
13 -> 14 ;
15 [label="gini = 0.5\nsamples = 2\nvalue = [1, 1, 0, 0, 0]"] ;
13 -> 15 ;
16 [label="X[10] <= 1.5\ngini = 0.612\nsamples = 7\nvalue = [3, 3, 1, 0, 0]"] ;
10 -> 16 ;
17 [label="X[7] <= 0.335\ngini = 0.56\nsamples = 5\nvalue = [1, 3, 1, 0, 0]"] ;
16 -> 17 ;
18 [label="gini = 0.0\nsamples = 1\nvalue = [0, 0, 1, 0, 0]"] ;
17 -> 18 ;
19 [label="X[5] <= 14.5\ngini = 0.375\nsamples = 4\nvalue = [1, 3, 0, 0, 0]"] ;
17 -> 19 ;
20 [label="gini = 0.0\nsamples = 2\nvalue = [0, 2, 0, 0, 0]"] ;
19 -> 20 ;
21 [label="X[11] <= 1.5\ngini = 0.5\nsamples = 2\nvalue = [1, 1, 0, 0, 0]"] ;
19 -> 21 ;
22 [label="gini = 0.0\nsamples = 1\nvalue = [0, 1, 0, 0, 0]"] ;
21 -> 22 ;
23 [label="gini = 0.0\nsamples = 1\nvalue = [1, 0, 0, 0, 0]"] ;
21 -> 23 ;
24 [label="gini = 0.0\nsamples = 2\nvalue = [2, 0, 0, 0, 0]"] ;
16 -> 24 ;
25 [label="X[11] <= 4.5\ngini = 0.225\nsamples = 57\nvalue = [50, 3, 2, 2, 0]"] ;
9 -> 25 ;
26 [label="X[6] <= 0.5\ngini = 0.202\nsamples = 55\nvalue = [49, 2, 2, 2, 0]"] ;
25 -> 26 ;
27 [label="X[5] <= 13.5\ngini = 0.367\nsamples = 28\nvalue = [22, 2, 2, 2, 0]"] ;
26 -> 27 ;
28 [label="X[0] <= 17.5\ngini = 0.5\nsamples = 2\nvalue = [1, 0, 1, 0, 0]"] ;
27 -> 28 ;
29 [label="gini = 0.0\nsamples = 1\nvalue = [1, 0, 0, 0, 0]"] ;
28 -> 29 ;
30 [label="gini = 0.0\nsamples = 1\nvalue = [0, 0, 1, 0, 0]"] ;
28 -> 30 ;
31 [label="X[0] <= 17.5\ngini = 0.334\nsamples = 26\nvalue = [21, 2, 1, 2, 0]"] ;
27 -> 31 ;
32 [label="X[5] <= 16.5\ngini = 0.298\nsamples = 11\nvalue = [9, 0, 0, 2, 0]"] ;
31 -> 32 ;
33 [label="X[5] <= 14.5\ngini = 0.219\nsamples = 8\nvalue = [7, 0, 0, 1, 0]"] ;
32 -> 33 ;
34 [label="gini = 0.0\nsamples = 2\nvalue = [2, 0, 0, 0, 0]"] ;
33 -> 34 ;
35 [label="X[11] <= 1.5\ngini = 0.278\nsamples = 6\nvalue = [5, 0, 0, 1, 0]"] ;
33 -> 35 ;
36 [label="gini = 0.0\nsamples = 2\nvalue = [2, 0, 0, 0, 0]"] ;
35 -> 36 ;
37 [label="X[11] <= 2.5\ngini = 0.375\nsamples = 4\nvalue = [3, 0, 0, 1, 0]"] ;
35 -> 37 ;
38 [label="gini = 0.444\nsamples = 3\nvalue = [2, 0, 0, 1, 0]"] ;
37 -> 38 ;
39 [label="gini = 0.0\nsamples = 1\nvalue = [1, 0, 0, 0, 0]"] ;
37 -> 39 ;
40 [label="gini = 0.444\nsamples = 3\nvalue = [2, 0, 0, 1, 0]"] ;
32 -> 40 ;
41 [label="X[11] <= 1.5\ngini = 0.338\nsamples = 15\nvalue = [12, 2, 1, 0, 0]"] ;
31 -> 41 ;
42 [label="gini = 0.0\nsamples = 6\nvalue = [6, 0, 0, 0, 0]"] ;
41 -> 42 ;
43 [label="X[5] <= 14.5\ngini = 0.494\nsamples = 9\nvalue = [6, 2, 1, 0, 0]"] ;
41 -> 43 ;
44 [label="gini = 0.0\nsamples = 1\nvalue = [0, 1, 0, 0, 0]"] ;
43 -> 44 ;
45 [label="X[5] <= 16.5\ngini = 0.406\nsamples = 8\nvalue = [6, 1, 1, 0, 0]"] ;
43 -> 45 ;
46 [label="X[10] <= 1.5\ngini = 0.278\nsamples = 6\nvalue = [5, 1, 0, 0, 0]"] ;
45 -> 46 ;
47 [label="X[11] <= 3.0\ngini = 0.375\nsamples = 4\nvalue = [3, 1, 0, 0, 0]"] ;
46 -> 47 ;
48 [label="X[5] <= 15.5\ngini = 0.444\nsamples = 3\nvalue = [2, 1, 0, 0, 0]"] ;
47 -> 48 ;
49 [label="gini = 0.5\nsamples = 2\nvalue = [1, 1, 0, 0, 0]"] ;
48 -> 49 ;
50 [label="gini = 0.0\nsamples = 1\nvalue = [1, 0, 0, 0, 0]"] ;
48 -> 50 ;
51 [label="gini = 0.0\nsamples = 1\nvalue = [1, 0, 0, 0, 0]"] ;
47 -> 51 ;
52 [label="gini = 0.0\nsamples = 2\nvalue = [2, 0, 0, 0, 0]"] ;
46 -> 52 ;
53 [label="gini = 0.5\nsamples = 2\nvalue = [1, 0, 1, 0, 0]"] ;
45 -> 53 ;
54 [label="gini = 0.0\nsamples = 27\nvalue = [27, 0, 0, 0, 0]"] ;
26 -> 54 ;
55 [label="X[7] <= 1.628\ngini = 0.5\nsamples = 2\nvalue = [1, 1, 0, 0, 0]"] ;
25 -> 55 ;
56 [label="gini = 0.0\nsamples = 1\nvalue = [0, 1, 0, 0, 0]"] ;
55 -> 56 ;
57 [label="gini = 0.0\nsamples = 1\nvalue = [1, 0, 0, 0, 0]"] ;
55 -> 57 ;
58 [label="X[10] <= 1.5\ngini = 0.48\nsamples = 10\nvalue = [6, 4, 0, 0, 0]"] ;
6 -> 58 ;
59 [label="X[0] <= 15.5\ngini = 0.375\nsamples = 8\nvalue = [6, 2, 0, 0, 0]"] ;
58 -> 59 ;
60 [label="X[11] <= 2.0\ngini = 0.444\nsamples = 3\nvalue = [1, 2, 0, 0, 0]"] ;
59 -> 60 ;
61 [label="gini = 0.0\nsamples = 1\nvalue = [1, 0, 0, 0, 0]"] ;
60 -> 61 ;
62 [label="gini = 0.0\nsamples = 2\nvalue = [0, 2, 0, 0, 0]"] ;
60 -> 62 ;
63 [label="gini = 0.0\nsamples = 5\nvalue = [5, 0, 0, 0, 0]"] ;
59 -> 63 ;
64 [label="gini = 0.0\nsamples = 2\nvalue = [0, 2, 0, 0, 0]"] ;
58 -> 64 ;
65 [label="X[5] <= 14.5\ngini = 0.134\nsamples = 470\nvalue = [437, 10, 10, 10, 3]"] ;
5 -> 65 ;
66 [label="X[5] <= 13.5\ngini = 0.254\nsamples = 42\nvalue = [36, 4, 2, 0, 0]"] ;
65 -> 66 ;
67 [label="gini = 0.0\nsamples = 14\nvalue = [14, 0, 0, 0, 0]"] ;
66 -> 67 ;
68 [label="X[0] <= 21.5\ngini = 0.357\nsamples = 28\nvalue = [22, 4, 2, 0, 0]"] ;
66 -> 68 ;
69 [label="X[0] <= 19.5\ngini = 0.54\nsamples = 10\nvalue = [6, 3, 1, 0, 0]"] ;
68 -> 69 ;
70 [label="gini = 0.0\nsamples = 5\nvalue = [5, 0, 0, 0, 0]"] ;
69 -> 70 ;
71 [label="X[10] <= 1.5\ngini = 0.56\nsamples = 5\nvalue = [1, 3, 1, 0, 0]"] ;
69 -> 71 ;
72 [label="gini = 0.0\nsamples = 2\nvalue = [0, 2, 0, 0, 0]"] ;
71 -> 72 ;
73 [label="X[10] <= 2.5\ngini = 0.667\nsamples = 3\nvalue = [1, 1, 1, 0, 0]"] ;
71 -> 73 ;
74 [label="gini = 0.0\nsamples = 1\nvalue = [1, 0, 0, 0, 0]"] ;
73 -> 74 ;
75 [label="X[7] <= 0.75\ngini = 0.5\nsamples = 2\nvalue = [0, 1, 1, 0, 0]"] ;
73 -> 75 ;
76 [label="gini = 0.0\nsamples = 1\nvalue = [0, 1, 0, 0, 0]"] ;
75 -> 76 ;
77 [label="gini = 0.0\nsamples = 1\nvalue = [0, 0, 1, 0, 0]"] ;
75 -> 77 ;
78 [label="X[11] <= 4.5\ngini = 0.204\nsamples = 18\nvalue = [16, 1, 1, 0, 0]"] ;
68 -> 78 ;
79 [label="X[9] <= 0.455\ngini = 0.124\nsamples = 15\nvalue = [14, 0, 1, 0, 0]"] ;
78 -> 79 ;
80 [label="gini = 0.0\nsamples = 10\nvalue = [10, 0, 0, 0, 0]"] ;
79 -> 80 ;
81 [label="X[7] <= 1.25\ngini = 0.32\nsamples = 5\nvalue = [4, 0, 1, 0, 0]"] ;
79 -> 81 ;
82 [label="gini = 0.0\nsamples = 4\nvalue = [4, 0, 0, 0, 0]"] ;
81 -> 82 ;
83 [label="gini = 0.0\nsamples = 1\nvalue = [0, 0, 1, 0, 0]"] ;
81 -> 83 ;
84 [label="X[7] <= 2.5\ngini = 0.444\nsamples = 3\nvalue = [2, 1, 0, 0, 0]"] ;
78 -> 84 ;
85 [label="gini = 0.0\nsamples = 2\nvalue = [2, 0, 0, 0, 0]"] ;
84 -> 85 ;
86 [label="gini = 0.0\nsamples = 1\nvalue = [0, 1, 0, 0, 0]"] ;
84 -> 86 ;
87 [label="X[9] <= 10.0\ngini = 0.121\nsamples = 428\nvalue = [401, 6, 8, 10, 3]"] ;
65 -> 87 ;
88 [label="X[5] <= 28.5\ngini = 0.118\nsamples = 425\nvalue = [399, 6, 7, 10, 3]"] ;
87 -> 88 ;
89 [label="X[9] <= 2.5\ngini = 0.114\nsamples = 422\nvalue = [397, 6, 7, 9, 3]"] ;
88 -> 89 ;
90 [label="X[10] <= 5.5\ngini = 0.109\nsamples = 406\nvalue = [383, 4, 7, 9, 3]"] ;
89 -> 90 ;
91 [label="X[5] <= 17.5\ngini = 0.103\nsamples = 395\nvalue = [374, 4, 6, 8, 3]"] ;
90 -> 91 ;
92 [label="X[5] <= 16.5\ngini = 0.145\nsamples = 209\nvalue = [193, 3, 4, 7, 2]"] ;
91 -> 92 ;
93 [label="X[0] <= 22.5\ngini = 0.086\nsamples = 136\nvalue = [130, 0, 2, 3, 1]"] ;
92 -> 93 ;
94 [label="X[30] <= 1.0\ngini = 0.171\nsamples = 55\nvalue = [50, 0, 2, 2, 1]"] ;
93 -> 94 ;
95 [label="X[0] <= 21.5\ngini = 0.141\nsamples = 54\nvalue = [50, 0, 1, 2, 1]"] ;
94 -> 95 ;
96 [label="X[10] <= 2.5\ngini = 0.08\nsamples = 48\nvalue = [46, 0, 0, 2, 0]"] ;
95 -> 96 ;
97 [label="X[11] <= 3.5\ngini = 0.044\nsamples = 44\nvalue = [43, 0, 0, 1, 0]"] ;
96 -> 97 ;
98 [label="gini = 0.0\nsamples = 36\nvalue = [36, 0, 0, 0, 0]"] ;
97 -> 98 ;
99 [label="X[7] <= 0.085\ngini = 0.219\nsamples = 8\nvalue = [7, 0, 0, 1, 0]"] ;
97 -> 99 ;
100 [label="X[0] <= 20.0\ngini = 0.5\nsamples = 2\nvalue = [1, 0, 0, 1, 0]"] ;
99 -> 100 ;
101 [label="gini = 0.0\nsamples = 1\nvalue = [1, 0, 0, 0, 0]"] ;
100 -> 101 ;
102 [label="gini = 0.0\nsamples = 1\nvalue = [0, 0, 0, 1, 0]"] ;
100 -> 102 ;
103 [label="gini = 0.0\nsamples = 6\nvalue = [6, 0, 0, 0, 0]"] ;
99 -> 103 ;
104 [label="X[0] <= 19.5\ngini = 0.375\nsamples = 4\nvalue = [3, 0, 0, 1, 0]"] ;
96 -> 104 ;
105 [label="gini = 0.0\nsamples = 1\nvalue = [0, 0, 0, 1, 0]"] ;
104 -> 105 ;
106 [label="gini = 0.0\nsamples = 3\nvalue = [3, 0, 0, 0, 0]"] ;
104 -> 106 ;
107 [label="X[11] <= 2.5\ngini = 0.5\nsamples = 6\nvalue = [4, 0, 1, 0, 1]"] ;
95 -> 107 ;
108 [label="gini = 0.0\nsamples = 4\nvalue = [4, 0, 0, 0, 0]"] ;
107 -> 108 ;
109 [label="X[5] <= 15.5\ngini = 0.5\nsamples = 2\nvalue = [0, 0, 1, 0, 1]"] ;
107 -> 109 ;
110 [label="gini = 0.0\nsamples = 1\nvalue = [0, 0, 0, 0, 1]"] ;
109 -> 110 ;
111 [label="gini = 0.0\nsamples = 1\nvalue = [0, 0, 1, 0, 0]"] ;
109 -> 111 ;
112 [label="gini = 0.0\nsamples = 1\nvalue = [0, 0, 1, 0, 0]"] ;
94 -> 112 ;
113 [label="X[9] <= 0.342\ngini = 0.024\nsamples = 81\nvalue = [80, 0, 0, 1, 0]"] ;
93 -> 113 ;
114 [label="gini = 0.0\nsamples = 63\nvalue = [63, 0, 0, 0, 0]"] ;
113 -> 114 ;
115 [label="X[7] <= 0.415\ngini = 0.105\nsamples = 18\nvalue = [17, 0, 0, 1, 0]"] ;
113 -> 115 ;
116 [label="X[7] <= 0.29\ngini = 0.375\nsamples = 4\nvalue = [3, 0, 0, 1, 0]"] ;
115 -> 116 ;
117 [label="gini = 0.0\nsamples = 3\nvalue = [3, 0, 0, 0, 0]"] ;
116 -> 117 ;
118 [label="gini = 0.0\nsamples = 1\nvalue = [0, 0, 0, 1, 0]"] ;
116 -> 118 ;
119 [label="gini = 0.0\nsamples = 14\nvalue = [14, 0, 0, 0, 0]"] ;
115 -> 119 ;
120 [label="X[10] <= 0.5\ngini = 0.25\nsamples = 73\nvalue = [63, 3, 2, 4, 1]"] ;
92 -> 120 ;
121 [label="gini = 0.0\nsamples = 1\nvalue = [0, 1, 0, 0, 0]"] ;
120 -> 121 ;
122 [label="X[7] <= 8.5\ngini = 0.23\nsamples = 72\nvalue = [63, 2, 2, 4, 1]"] ;
120 -> 122 ;
123 [label="X[11] <= 1.5\ngini = 0.209\nsamples = 71\nvalue = [63, 2, 2, 3, 1]"] ;
122 -> 123 ;
124 [label="X[10] <= 1.5\ngini = 0.485\nsamples = 13\nvalue = [9, 1, 2, 1, 0]"] ;
123 -> 124 ;
125 [label="X[7] <= 0.5\ngini = 0.245\nsamples = 7\nvalue = [6, 1, 0, 0, 0]"] ;
124 -> 125 ;
126 [label="gini = 0.0\nsamples = 1\nvalue = [0, 1, 0, 0, 0]"] ;
125 -> 126 ;
127 [label="gini = 0.0\nsamples = 6\nvalue = [6, 0, 0, 0, 0]"] ;
125 -> 127 ;
128 [label="X[10] <= 2.5\ngini = 0.611\nsamples = 6\nvalue = [3, 0, 2, 1, 0]"] ;
124 -> 128 ;
129 [label="gini = 0.0\nsamples = 2\nvalue = [0, 0, 2, 0, 0]"] ;
128 -> 129 ;
130 [label="X[7] <= 3.128\ngini = 0.375\nsamples = 4\nvalue = [3, 0, 0, 1, 0]"] ;
128 -> 130 ;
131 [label="gini = 0.0\nsamples = 2\nvalue = [2, 0, 0, 0, 0]"] ;
130 -> 131 ;
132 [label="X[0] <= 27.0\ngini = 0.5\nsamples = 2\nvalue = [1, 0, 0, 1, 0]"] ;
130 -> 132 ;
133 [label="gini = 0.0\nsamples = 1\nvalue = [1, 0, 0, 0, 0]"] ;
132 -> 133 ;
134 [label="gini = 0.0\nsamples = 1\nvalue = [0, 0, 0, 1, 0]"] ;
132 -> 134 ;
135 [label="X[30] <= 1.5\ngini = 0.131\nsamples = 58\nvalue = [54, 1, 0, 2, 1]"] ;
123 -> 135 ;
136 [label="X[7] <= 0.12\ngini = 0.107\nsamples = 54\nvalue = [51, 1, 0, 1, 1]"] ;
135 -> 136 ;
137 [label="X[6] <= 0.5\ngini = 0.24\nsamples = 15\nvalue = [13, 1, 0, 0, 1]"] ;
136 -> 137 ;
138 [label="X[0] <= 22.0\ngini = 0.133\nsamples = 14\nvalue = [13, 1, 0, 0, 0]"] ;
137 -> 138 ;
139 [label="X[11] <= 4.0\ngini = 0.5\nsamples = 2\nvalue = [1, 1, 0, 0, 0]"] ;
138 -> 139 ;
140 [label="gini = 0.0\nsamples = 1\nvalue = [0, 1, 0, 0, 0]"] ;
139 -> 140 ;
141 [label="gini = 0.0\nsamples = 1\nvalue = [1, 0, 0, 0, 0]"] ;
139 -> 141 ;
142 [label="gini = 0.0\nsamples = 12\nvalue = [12, 0, 0, 0, 0]"] ;
138 -> 142 ;
143 [label="gini = 0.0\nsamples = 1\nvalue = [0, 0, 0, 0, 1]"] ;
137 -> 143 ;
144 [label="X[0] <= 33.5\ngini = 0.05\nsamples = 39\nvalue = [38, 0, 0, 1, 0]"] ;
136 -> 144 ;
145 [label="gini = 0.0\nsamples = 34\nvalue = [34, 0, 0, 0, 0]"] ;
144 -> 145 ;
146 [label="X[0] <= 35.5\ngini = 0.32\nsamples = 5\nvalue = [4, 0, 0, 1, 0]"] ;
144 -> 146 ;
147 [label="X[9] <= 0.257\ngini = 0.5\nsamples = 2\nvalue = [1, 0, 0, 1, 0]"] ;
146 -> 147 ;
148 [label="gini = 0.0\nsamples = 1\nvalue = [0, 0, 0, 1, 0]"] ;
147 -> 148 ;
149 [label="gini = 0.0\nsamples = 1\nvalue = [1, 0, 0, 0, 0]"] ;
147 -> 149 ;
150 [label="gini = 0.0\nsamples = 3\nvalue = [3, 0, 0, 0, 0]"] ;
146 -> 150 ;
151 [label="X[7] <= 4.0\ngini = 0.375\nsamples = 4\nvalue = [3, 0, 0, 1, 0]"] ;
135 -> 151 ;
152 [label="gini = 0.0\nsamples = 3\nvalue = [3, 0, 0, 0, 0]"] ;
151 -> 152 ;
153 [label="gini = 0.0\nsamples = 1\nvalue = [0, 0, 0, 1, 0]"] ;
151 -> 153 ;
154 [label="gini = 0.0\nsamples = 1\nvalue = [0, 0, 0, 1, 0]"] ;
122 -> 154 ;
155 [label="X[0] <= 44.5\ngini = 0.053\nsamples = 186\nvalue = [181, 1, 2, 1, 1]"] ;
91 -> 155 ;
156 [label="X[11] <= 4.5\ngini = 0.043\nsamples = 183\nvalue = [179, 1, 1, 1, 1]"] ;
155 -> 156 ;
157 [label="X[30] <= 0.247\ngini = 0.034\nsamples = 174\nvalue = [171, 1, 0, 1, 1]"] ;
156 -> 157 ;
158 [label="X[7] <= 4.5\ngini = 0.024\nsamples = 163\nvalue = [161, 1, 0, 1, 0]"] ;
157 -> 158 ;
159 [label="X[0] <= 23.5\ngini = 0.015\nsamples = 136\nvalue = [135, 1, 0, 0, 0]"] ;
158 -> 159 ;
160 [label="X[6] <= 0.5\ngini = 0.048\nsamples = 41\nvalue = [40, 1, 0, 0, 0]"] ;
159 -> 160 ;
161 [label="X[0] <= 22.5\ngini = 0.133\nsamples = 14\nvalue = [13, 1, 0, 0, 0]"] ;
160 -> 161 ;
162 [label="gini = 0.0\nsamples = 9\nvalue = [9, 0, 0, 0, 0]"] ;
161 -> 162 ;
163 [label="X[10] <= 1.5\ngini = 0.32\nsamples = 5\nvalue = [4, 1, 0, 0, 0]"] ;
161 -> 163 ;
164 [label="X[11] <= 1.5\ngini = 0.5\nsamples = 2\nvalue = [1, 1, 0, 0, 0]"] ;
163 -> 164 ;
165 [label="gini = 0.0\nsamples = 1\nvalue = [1, 0, 0, 0, 0]"] ;
164 -> 165 ;
166 [label="gini = 0.0\nsamples = 1\nvalue = [0, 1, 0, 0, 0]"] ;
164 -> 166 ;
167 [label="gini = 0.0\nsamples = 3\nvalue = [3, 0, 0, 0, 0]"] ;
163 -> 167 ;
168 [label="gini = 0.0\nsamples = 27\nvalue = [27, 0, 0, 0, 0]"] ;
160 -> 168 ;
169 [label="gini = 0.0\nsamples = 95\nvalue = [95, 0, 0, 0, 0]"] ;
159 -> 169 ;
170 [label="X[0] <= 27.0\ngini = 0.071\nsamples = 27\nvalue = [26, 0, 0, 1, 0]"] ;
158 -> 170 ;
171 [label="X[11] <= 2.5\ngini = 0.198\nsamples = 9\nvalue = [8, 0, 0, 1, 0]"] ;
170 -> 171 ;
172 [label="gini = 0.0\nsamples = 8\nvalue = [8, 0, 0, 0, 0]"] ;
171 -> 172 ;
173 [label="gini = 0.0\nsamples = 1\nvalue = [0, 0, 0, 1, 0]"] ;
171 -> 173 ;
174 [label="gini = 0.0\nsamples = 18\nvalue = [18, 0, 0, 0, 0]"] ;
170 -> 174 ;
175 [label="X[7] <= 0.04\ngini = 0.165\nsamples = 11\nvalue = [10, 0, 0, 0, 1]"] ;
157 -> 175 ;
176 [label="X[0] <= 31.5\ngini = 0.375\nsamples = 4\nvalue = [3, 0, 0, 0, 1]"] ;
175 -> 176 ;
177 [label="gini = 0.0\nsamples = 2\nvalue = [2, 0, 0, 0, 0]"] ;
176 -> 177 ;
178 [label="X[11] <= 3.5\ngini = 0.5\nsamples = 2\nvalue = [1, 0, 0, 0, 1]"] ;
176 -> 178 ;
179 [label="gini = 0.0\nsamples = 1\nvalue = [0, 0, 0, 0, 1]"] ;
178 -> 179 ;
180 [label="gini = 0.0\nsamples = 1\nvalue = [1, 0, 0, 0, 0]"] ;
178 -> 180 ;
181 [label="gini = 0.0\nsamples = 7\nvalue = [7, 0, 0, 0, 0]"] ;
175 -> 181 ;
182 [label="X[7] <= 0.5\ngini = 0.198\nsamples = 9\nvalue = [8, 0, 1, 0, 0]"] ;
156 -> 182 ;
183 [label="X[5] <= 21.0\ngini = 0.444\nsamples = 3\nvalue = [2, 0, 1, 0, 0]"] ;
182 -> 183 ;
184 [label="X[10] <= 2.5\ngini = 0.5\nsamples = 2\nvalue = [1, 0, 1, 0, 0]"] ;
183 -> 184 ;
185 [label="gini = 0.0\nsamples = 1\nvalue = [0, 0, 1, 0, 0]"] ;
184 -> 185 ;
186 [label="gini = 0.0\nsamples = 1\nvalue = [1, 0, 0, 0, 0]"] ;
184 -> 186 ;
187 [label="gini = 0.0\nsamples = 1\nvalue = [1, 0, 0, 0, 0]"] ;
183 -> 187 ;
188 [label="gini = 0.0\nsamples = 6\nvalue = [6, 0, 0, 0, 0]"] ;
182 -> 188 ;
189 [label="X[10] <= 3.5\ngini = 0.444\nsamples = 3\nvalue = [2, 0, 1, 0, 0]"] ;
155 -> 189 ;
190 [label="gini = 0.0\nsamples = 2\nvalue = [2, 0, 0, 0, 0]"] ;
189 -> 190 ;
191 [label="gini = 0.0\nsamples = 1\nvalue = [0, 0, 1, 0, 0]"] ;
189 -> 191 ;
192 [label="X[5] <= 20.5\ngini = 0.314\nsamples = 11\nvalue = [9, 0, 1, 1, 0]"] ;
90 -> 192 ;
193 [label="X[5] <= 17.5\ngini = 0.18\nsamples = 10\nvalue = [9, 0, 0, 1, 0]"] ;
192 -> 193 ;
194 [label="gini = 0.0\nsamples = 6\nvalue = [6, 0, 0, 0, 0]"] ;
193 -> 194 ;
195 [label="X[7] <= 3.0\ngini = 0.375\nsamples = 4\nvalue = [3, 0, 0, 1, 0]"] ;
193 -> 195 ;
196 [label="X[6] <= 0.5\ngini = 0.5\nsamples = 2\nvalue = [1, 0, 0, 1, 0]"] ;
195 -> 196 ;
197 [label="gini = 0.0\nsamples = 1\nvalue = [1, 0, 0, 0, 0]"] ;
196 -> 197 ;
198 [label="gini = 0.0\nsamples = 1\nvalue = [0, 0, 0, 1, 0]"] ;
196 -> 198 ;
199 [label="gini = 0.0\nsamples = 2\nvalue = [2, 0, 0, 0, 0]"] ;
195 -> 199 ;
200 [label="gini = 0.0\nsamples = 1\nvalue = [0, 0, 1, 0, 0]"] ;
192 -> 200 ;
201 [label="X[7] <= 5.5\ngini = 0.219\nsamples = 16\nvalue = [14, 2, 0, 0, 0]"] ;
89 -> 201 ;
202 [label="X[5] <= 19.5\ngini = 0.124\nsamples = 15\nvalue = [14, 1, 0, 0, 0]"] ;
201 -> 202 ;
203 [label="gini = 0.0\nsamples = 13\nvalue = [13, 0, 0, 0, 0]"] ;
202 -> 203 ;
204 [label="X[10] <= 2.5\ngini = 0.5\nsamples = 2\nvalue = [1, 1, 0, 0, 0]"] ;
202 -> 204 ;
205 [label="gini = 0.0\nsamples = 1\nvalue = [0, 1, 0, 0, 0]"] ;
204 -> 205 ;
206 [label="gini = 0.0\nsamples = 1\nvalue = [1, 0, 0, 0, 0]"] ;
204 -> 206 ;
207 [label="gini = 0.0\nsamples = 1\nvalue = [0, 1, 0, 0, 0]"] ;
201 -> 207 ;
208 [label="X[10] <= 1.5\ngini = 0.444\nsamples = 3\nvalue = [2, 0, 0, 1, 0]"] ;
88 -> 208 ;
209 [label="gini = 0.0\nsamples = 2\nvalue = [2, 0, 0, 0, 0]"] ;
208 -> 209 ;
210 [label="gini = 0.0\nsamples = 1\nvalue = [0, 0, 0, 1, 0]"] ;
208 -> 210 ;
211 [label="X[5] <= 17.5\ngini = 0.444\nsamples = 3\nvalue = [2, 0, 1, 0, 0]"] ;
87 -> 211 ;
212 [label="gini = 0.0\nsamples = 2\nvalue = [2, 0, 0, 0, 0]"] ;
211 -> 212 ;
213 [label="gini = 0.0\nsamples = 1\nvalue = [0, 0, 1, 0, 0]"] ;
211 -> 213 ;
214 [label="gini = 0.0\nsamples = 1\nvalue = [0, 1, 0, 0, 0]"] ;
4 -> 214 ;
215 [label="gini = 0.0\nsamples = 1\nvalue = [0, 1, 0, 0, 0]"] ;
3 -> 215 ;
216 [label="X[23] <= 0.5\ngini = 0.379\nsamples = 61\nvalue = [47, 6, 0, 8, 0]"] ;
2 -> 216 ;
217 [label="X[9] <= 6.5\ngini = 0.362\nsamples = 60\nvalue = [47, 5, 0, 8, 0]"] ;
216 -> 217 ;
218 [label="X[31] <= 19.0\ngini = 0.342\nsamples = 59\nvalue = [47, 4, 0, 8, 0]"] ;
217 -> 218 ;
219 [label="X[5] <= 16.5\ngini = 0.324\nsamples = 58\nvalue = [47, 4, 0, 7, 0]"] ;
218 -> 219 ;
220 [label="X[31] <= 1.61\ngini = 0.135\nsamples = 28\nvalue = [26, 1, 0, 1, 0]"] ;
219 -> 220 ;
221 [label="gini = 0.0\nsamples = 20\nvalue = [20, 0, 0, 0, 0]"] ;
220 -> 221 ;
222 [label="X[11] <= 1.5\ngini = 0.406\nsamples = 8\nvalue = [6, 1, 0, 1, 0]"] ;
220 -> 222 ;
223 [label="gini = 0.0\nsamples = 1\nvalue = [0, 0, 0, 1, 0]"] ;
222 -> 223 ;
224 [label="X[30] <= 0.85\ngini = 0.245\nsamples = 7\nvalue = [6, 1, 0, 0, 0]"] ;
222 -> 224 ;
225 [label="X[0] <= 22.5\ngini = 0.5\nsamples = 2\nvalue = [1, 1, 0, 0, 0]"] ;
224 -> 225 ;
226 [label="gini = 0.0\nsamples = 1\nvalue = [1, 0, 0, 0, 0]"] ;
225 -> 226 ;
227 [label="gini = 0.0\nsamples = 1\nvalue = [0, 1, 0, 0, 0]"] ;
225 -> 227 ;
228 [label="gini = 0.0\nsamples = 5\nvalue = [5, 0, 0, 0, 0]"] ;
224 -> 228 ;
229 [label="X[0] <= 28.5\ngini = 0.46\nsamples = 30\nvalue = [21, 3, 0, 6, 0]"] ;
219 -> 229 ;
230 [label="X[7] <= 2.128\ngini = 0.625\nsamples = 12\nvalue = [5, 2, 0, 5, 0]"] ;
229 -> 230 ;
231 [label="X[0] <= 21.0\ngini = 0.531\nsamples = 8\nvalue = [2, 1, 0, 5, 0]"] ;
230 -> 231 ;
232 [label="X[20] <= 0.5\ngini = 0.5\nsamples = 2\nvalue = [1, 1, 0, 0, 0]"] ;
231 -> 232 ;
233 [label="gini = 0.0\nsamples = 1\nvalue = [0, 1, 0, 0, 0]"] ;
232 -> 233 ;
234 [label="gini = 0.0\nsamples = 1\nvalue = [1, 0, 0, 0, 0]"] ;
232 -> 234 ;
235 [label="X[26] <= 0.5\ngini = 0.278\nsamples = 6\nvalue = [1, 0, 0, 5, 0]"] ;
231 -> 235 ;
236 [label="gini = 0.0\nsamples = 5\nvalue = [0, 0, 0, 5, 0]"] ;
235 -> 236 ;
237 [label="gini = 0.0\nsamples = 1\nvalue = [1, 0, 0, 0, 0]"] ;
235 -> 237 ;
238 [label="X[15] <= 5.5\ngini = 0.375\nsamples = 4\nvalue = [3, 1, 0, 0, 0]"] ;
230 -> 238 ;
239 [label="gini = 0.0\nsamples = 3\nvalue = [3, 0, 0, 0, 0]"] ;
238 -> 239 ;
240 [label="gini = 0.0\nsamples = 1\nvalue = [0, 1, 0, 0, 0]"] ;
238 -> 240 ;
241 [label="X[10] <= 5.0\ngini = 0.204\nsamples = 18\nvalue = [16, 1, 0, 1, 0]"] ;
229 -> 241 ;
242 [label="X[11] <= 1.5\ngini = 0.111\nsamples = 17\nvalue = [16, 0, 0, 1, 0]"] ;
241 -> 242 ;
243 [label="X[0] <= 38.0\ngini = 0.375\nsamples = 4\nvalue = [3, 0, 0, 1, 0]"] ;
242 -> 243 ;
244 [label="gini = 0.0\nsamples = 3\nvalue = [3, 0, 0, 0, 0]"] ;
243 -> 244 ;
245 [label="gini = 0.0\nsamples = 1\nvalue = [0, 0, 0, 1, 0]"] ;
243 -> 245 ;
246 [label="gini = 0.0\nsamples = 13\nvalue = [13, 0, 0, 0, 0]"] ;
242 -> 246 ;
247 [label="gini = 0.0\nsamples = 1\nvalue = [0, 1, 0, 0, 0]"] ;
241 -> 247 ;
248 [label="gini = 0.0\nsamples = 1\nvalue = [0, 0, 0, 1, 0]"] ;
218 -> 248 ;
249 [label="gini = 0.0\nsamples = 1\nvalue = [0, 1, 0, 0, 0]"] ;
217 -> 249 ;
250 [label="gini = 0.0\nsamples = 1\nvalue = [0, 1, 0, 0, 0]"] ;
216 -> 250 ;
251 [label="X[0] <= 23.0\ngini = 0.578\nsamples = 23\nvalue = [14, 4, 1, 3, 1]"] ;
1 -> 251 ;
252 [label="X[5] <= 17.5\ngini = 0.625\nsamples = 4\nvalue = [0, 2, 0, 1, 1]"] ;
251 -> 252 ;
253 [label="gini = 0.0\nsamples = 2\nvalue = [0, 2, 0, 0, 0]"] ;
252 -> 253 ;
254 [label="X[7] <= 0.5\ngini = 0.5\nsamples = 2\nvalue = [0, 0, 0, 1, 1]"] ;
252 -> 254 ;
255 [label="gini = 0.0\nsamples = 1\nvalue = [0, 0, 0, 1, 0]"] ;
254 -> 255 ;
256 [label="gini = 0.0\nsamples = 1\nvalue = [0, 0, 0, 0, 1]"] ;
254 -> 256 ;
257 [label="X[18] <= 0.5\ngini = 0.432\nsamples = 19\nvalue = [14, 2, 1, 2, 0]"] ;
251 -> 257 ;
258 [label="X[30] <= 0.227\ngini = 0.37\nsamples = 18\nvalue = [14, 2, 0, 2, 0]"] ;
257 -> 258 ;
259 [label="X[7] <= 7.5\ngini = 0.304\nsamples = 17\nvalue = [14, 1, 0, 2, 0]"] ;
258 -> 259 ;
260 [label="X[10] <= 2.5\ngini = 0.219\nsamples = 16\nvalue = [14, 0, 0, 2, 0]"] ;
259 -> 260 ;
261 [label="gini = 0.0\nsamples = 9\nvalue = [9, 0, 0, 0, 0]"] ;
260 -> 261 ;
262 [label="X[7] <= 0.58\ngini = 0.408\nsamples = 7\nvalue = [5, 0, 0, 2, 0]"] ;
260 -> 262 ;
263 [label="X[11] <= 1.5\ngini = 0.444\nsamples = 3\nvalue = [1, 0, 0, 2, 0]"] ;
262 -> 263 ;
264 [label="gini = 0.0\nsamples = 1\nvalue = [1, 0, 0, 0, 0]"] ;
263 -> 264 ;
265 [label="gini = 0.0\nsamples = 2\nvalue = [0, 0, 0, 2, 0]"] ;
263 -> 265 ;
266 [label="gini = 0.0\nsamples = 4\nvalue = [4, 0, 0, 0, 0]"] ;
262 -> 266 ;
267 [label="gini = 0.0\nsamples = 1\nvalue = [0, 1, 0, 0, 0]"] ;
259 -> 267 ;
268 [label="gini = 0.0\nsamples = 1\nvalue = [0, 1, 0, 0, 0]"] ;
258 -> 268 ;
269 [label="gini = 0.0\nsamples = 1\nvalue = [0, 0, 1, 0, 0]"] ;
257 -> 269 ;
270 [label="X[11] <= 1.5\ngini = 0.629\nsamples = 30\nvalue = [17, 4, 3, 4, 2]"] ;
0 -> 270 [labeldistance=2.5, labelangle=-45, headlabel="False"] ;
271 [label="gini = 0.0\nsamples = 2\nvalue = [0, 0, 0, 2, 0]"] ;
270 -> 271 ;
272 [label="X[30] <= 4.35\ngini = 0.589\nsamples = 28\nvalue = [17, 4, 3, 2, 2]"] ;
270 -> 272 ;
273 [label="X[0] <= 45.0\ngini = 0.536\nsamples = 26\nvalue = [17, 4, 2, 2, 1]"] ;
272 -> 273 ;
274 [label="X[9] <= 0.337\ngini = 0.465\nsamples = 24\nvalue = [17, 4, 1, 1, 1]"] ;
273 -> 274 ;
275 [label="X[3] <= 0.5\ngini = 0.29\nsamples = 18\nvalue = [15, 2, 1, 0, 0]"] ;
274 -> 275 ;
276 [label="X[31] <= 5.133\ngini = 0.208\nsamples = 17\nvalue = [15, 2, 0, 0, 0]"] ;
275 -> 276 ;
277 [label="X[7] <= 17.0\ngini = 0.124\nsamples = 15\nvalue = [14, 1, 0, 0, 0]"] ;
276 -> 277 ;
278 [label="gini = 0.0\nsamples = 12\nvalue = [12, 0, 0, 0, 0]"] ;
277 -> 278 ;
279 [label="X[7] <= 19.5\ngini = 0.444\nsamples = 3\nvalue = [2, 1, 0, 0, 0]"] ;
277 -> 279 ;
280 [label="gini = 0.0\nsamples = 1\nvalue = [0, 1, 0, 0, 0]"] ;
279 -> 280 ;
281 [label="gini = 0.0\nsamples = 2\nvalue = [2, 0, 0, 0, 0]"] ;
279 -> 281 ;
282 [label="X[10] <= 2.5\ngini = 0.5\nsamples = 2\nvalue = [1, 1, 0, 0, 0]"] ;
276 -> 282 ;
283 [label="gini = 0.0\nsamples = 1\nvalue = [0, 1, 0, 0, 0]"] ;
282 -> 283 ;
284 [label="gini = 0.0\nsamples = 1\nvalue = [1, 0, 0, 0, 0]"] ;
282 -> 284 ;
285 [label="gini = 0.0\nsamples = 1\nvalue = [0, 0, 1, 0, 0]"] ;
275 -> 285 ;
286 [label="X[0] <= 39.0\ngini = 0.722\nsamples = 6\nvalue = [2, 2, 0, 1, 1]"] ;
274 -> 286 ;
287 [label="X[11] <= 3.5\ngini = 0.625\nsamples = 4\nvalue = [0, 2, 0, 1, 1]"] ;
286 -> 287 ;
288 [label="X[7] <= 11.0\ngini = 0.444\nsamples = 3\nvalue = [0, 2, 0, 1, 0]"] ;
287 -> 288 ;
289 [label="gini = 0.0\nsamples = 1\nvalue = [0, 0, 0, 1, 0]"] ;
288 -> 289 ;
290 [label="gini = 0.0\nsamples = 2\nvalue = [0, 2, 0, 0, 0]"] ;
288 -> 290 ;
291 [label="gini = 0.0\nsamples = 1\nvalue = [0, 0, 0, 0, 1]"] ;
287 -> 291 ;
292 [label="gini = 0.0\nsamples = 2\nvalue = [2, 0, 0, 0, 0]"] ;
286 -> 292 ;
293 [label="X[5] <= 16.5\ngini = 0.5\nsamples = 2\nvalue = [0, 0, 1, 1, 0]"] ;
273 -> 293 ;
294 [label="gini = 0.0\nsamples = 1\nvalue = [0, 0, 1, 0, 0]"] ;
293 -> 294 ;
295 [label="gini = 0.0\nsamples = 1\nvalue = [0, 0, 0, 1, 0]"] ;
293 -> 295 ;
296 [label="X[5] <= 15.0\ngini = 0.5\nsamples = 2\nvalue = [0, 0, 1, 0, 1]"] ;
272 -> 296 ;
297 [label="gini = 0.0\nsamples = 1\nvalue = [0, 0, 0, 0, 1]"] ;
296 -> 297 ;
298 [label="gini = 0.0\nsamples = 1\nvalue = [0, 0, 1, 0, 0]"] ;
296 -> 298 ;
}